digraph Tree {
node [shape=box, style="filled", color="black"] ;
0 [label="x2 <= 1.1781\nentropy = 1.0\nsamples = 200\nvalue = [100, 100]", fillcolor="#e5813900"] ;
1 [label="x1 <= 1.6931\nentropy = 0.7219\nsamples = 115\nvalue = [92, 23]", fillcolor="#e58139bf"] ;
0 -> 1 [labeldistance=2.5, labelangle=45, headlabel="True"] ;
2 [label="x2 <= 0.6072\nentropy = 0.4722\nsamples = 99\nvalue = [89, 10]", fillcolor="#e58139e2"] ;
1 -> 2 ;
3 [label="entropy = 0.1774\nsamples = 75\nvalue = [73, 2]", fillcolor="#e58139f8"] ;
2 -> 3 ;
4 [label="entropy = 0.9183\nsamples = 24\nvalue = [16, 8]", fillcolor="#e581397f"] ;
2 -> 4 ;
5 [label="x2 <= -0.5466\nentropy = 0.6962\nsamples = 16\nvalue = [3, 13]", fillcolor="#399de5c4"] ;
1 -> 5 ;
6 [label="entropy = 0.0\nsamples = 2\nvalue = [2, 0]", fillcolor="#e58139ff"] ;
5 -> 6 ;
7 [label="entropy = 0.3712\nsamples = 14\nvalue = [1, 13]", fillcolor="#399de5eb"] ;
5 -> 7 ;
8 [label="x1 <= 0.7822\nentropy = 0.4501\nsamples = 85\nvalue = [8, 77]", fillcolor="#399de5e5"] ;
0 -> 8 [labeldistance=2.5, labelangle=-45, headlabel="False"] ;
9 [label="x2 <= 2.5159\nentropy = 0.9852\nsamples = 14\nvalue = [8, 6]", fillcolor="#e5813940"] ;
8 -> 9 ;
10 [label="entropy = 0.7219\nsamples = 10\nvalue = [8, 2]", fillcolor="#e58139bf"] ;
9 -> 10 ;
11 [label="entropy = 0.0\nsamples = 4\nvalue = [0, 4]", fillcolor="#399de5ff"] ;
9 -> 11 ;
12 [label="entropy = 0.0\nsamples = 71\nvalue = [0, 71]", fillcolor="#399de5ff"] ;
8 -> 12 ;
}